-2.375070005655288696e-03
3.476025164127349854e-02
-7.661629468202590942e-02
1.802290789783000946e-02
2.268182672560214996e-02
-5.967266391962766647e-03
-8.862502127885818481e-02
4.680118337273597717e-02
1.859023235738277435e-02
3.722149133682250977e-02
2.687189960852265358e-03
-1.855047233402729034e-02
-3.019238263368606567e-02
-4.873570054769515991e-02
4.803626984357833862e-02
-7.172152400016784668e-02
3.433513641357421875e-02
2.162884920835494995e-02
2.501975744962692261e-02
7.415988948196172714e-03
5.258937180042266846e-02
1.981604471802711487e-02
-3.075603628531098366e-03
-4.333427175879478455e-03
3.335032239556312561e-02
2.135962620377540588e-02
6.245361268520355225e-02
-2.070533633232116699e-01
6.930215656757354736e-02
7.331286557018756866e-03
9.033943526446819305e-03
-3.599771484732627869e-02
-1.763834655284881592e-01
-3.297415003180503845e-02
-6.973520666360855103e-02
3.204053267836570740e-02
8.508215658366680145e-03
-1.219449266791343689e-01
-2.124554477632045746e-02
-6.865764409303665161e-02
2.896482357755303383e-03
1.925756782293319702e-02
4.808615520596504211e-02
6.108924280852079391e-03
4.876068979501724243e-02
-4.076800867915153503e-02
7.546127773821353912e-03
4.349812492728233337e-02
-8.652140945196151733e-02
5.899902898818254471e-03
-2.610276639461517334e-02
4.645856842398643494e-02
-3.306169062852859497e-02
2.636709809303283691e-02
-1.579293794929981232e-02
-3.233781456947326660e-02
1.553071197122335434e-02
1.932065375149250031e-02
7.000180333852767944e-02
4.833424463868141174e-02
-2.249212004244327545e-03
-9.572888910770416260e-02
-4.764903709292411804e-02
5.175860226154327393e-02
