5.763749359175562859e-04
-1.140821445733308792e-02
-3.189746662974357605e-02
3.630667924880981445e-02
2.709938585758209229e-02
1.437093480490148067e-03
1.070577185600996017e-02
1.272141467779874802e-02
-1.470403186976909637e-02
-5.072805099189281464e-03
6.672153249382972717e-03
-7.107948418706655502e-03
8.976313401944935322e-04
1.195935159921646118e-02
-1.035395357757806778e-02
-3.009347245097160339e-03
7.681450992822647095e-02
-1.605581928743049502e-04
-9.603232145309448242e-02
1.143521163612604141e-03
4.108234867453575134e-02
-8.016005158424377441e-03
-2.346469322219491005e-03
-1.983751915395259857e-02
-1.196851395070552826e-02
-1.975357532501220703e-02
-1.502189598977565765e-02
1.582568511366844177e-02
2.409835904836654663e-02
-6.721673160791397095e-02
-2.879225611686706543e-01
1.201340928673744202e-02
2.932718722149729729e-03
-5.494130775332450867e-02
9.819633560255169868e-04
-2.304379828274250031e-02
3.655881388112902641e-03
7.234783470630645752e-02
2.085339836776256561e-02
-2.326100319623947144e-02
-1.816271245479583740e-02
1.147758215665817261e-02
5.247046705335378647e-03
1.307233981788158417e-02
-5.778514593839645386e-02
-4.500599578022956848e-03
3.299006447196006775e-02
-1.508185267448425293e-01
1.018638350069522858e-02
-2.631055889651179314e-03
-1.474898774176836014e-02
-1.789239048957824707e-02
-7.258634269237518311e-02
-1.723193936049938202e-02
1.606781966984272003e-02
4.169441014528274536e-02
-1.484476123005151749e-02
-4.519804567098617554e-02
-2.977896947413682938e-03
5.509468261152505875e-03
4.040083382278680801e-03
-3.545029787346720695e-03
3.253649920225143433e-02
-7.368593942373991013e-03
